0.12076126 0.1748953 0.2506295 0.2923041 0.014476496 -0.0036482075 0.361761 -0.054542646 0.1559447 0.26036587 -0.08694401 -0.13916509 -0.062624596 0.16008522 0.08201971 0.03190946 -0.0050209165 0.09744505 0.33492917 0.22824247 0.2949468 0.013146272 0.043476503 -0.07691648 -0.15251485 0.025092112 0.5466686 -0.054211304 0.07270035 0.2788953 0.50386494 0.35049126 0.60599804 0.12617615 0.077382766 -0.09179509 0.1750315 -0.010927394 0.2570725 0.1448485 0.06506157 0.0043181507 -0.018267922 0.1744374 0.032985795 -0.2066727 0.061373495 0.2577114 -0.09380144 0.47056863 0.16263917 -0.023749974 0.480547 -0.03136779 0.16017562 0.071171924 0.37038952 0.022816014 0.05477418 0.07597285 -0.021679707 0.44910318 0.41639346 -0.008218015 -0.08280651 -0.0030564675 0.03847774 0.024042103 0.084097095 -0.008132899 0.03154305 -0.024172008 0.299903 -0.041699752 0.2125989 -0.18464772 0.10811864 0.1804679 -0.056949306 -0.25101998 9.2265586E-4 -0.13682689 0.06892656 0.0028366998 0.13561772 0.4258598 0.32950407 0.19174244 0.003590156 0.43597254 0.07395394 0.02899302 -0.01739416 0.23140924 0.05477008 0.07481308 -0.073292516 0.23617929 0.14799885 0.037473716 0.108784 0.76352614 0.12601818 0.069780126 0.43939632 0.05355128 0.03196295 0.06357194 0.4509437 0.23001933 0.6832152 0.020581076 0.104279816 0.429037 -0.23037207 0.25264388 0.19917881 0.29864496 0.04599195 0.34368092 0.102000244 0.074959144 0.17424175 0.58132565 0.046583425 0.32656908 0.038073875 -0.0136823775 0.2710134 -0.06955013 -0.16679537 0.07200917 0.42430702 -0.009973785 0.023371886 -0.15027192 0.28684306 0.3797951 -0.09117807 0.3758277 0.46067426 0.020069731 0.19266038 0.394881 -0.022053402 0.3055197 -0.06470212 -0.24675006 0.11181854 0.046003655 0.13956904 0.071242355 0.13962975 0.16608727 0.16544254 -0.053796433 0.25679597 0.015653415 0.14621988 0.04108037 0.14670876 0.015068352 -0.28234664 0.1188416 0.20345743 0.016719285 0.0016079764 -0.021875413 0.31131226 -0.042819865 0.21371295 -0.32112938 0.03876686 0.41369155 0.031613864 0.16288064 -0.14505643 0.09881743 0.051817376 -0.0047897073 -0.00749078 0.04261556 -0.07144257 -0.16137704 0.034566052 0.20721316 0.014824099 0.2724407 0.38267452 -0.023379002 0.3585829 0.34764457 0.05167975 -0.0073897424 0.22012775 0.16379876 -0.21675919 0.4060247 0.19715947 0.0020185753 0.12601641 -0.08862572 0.021419829 0.1515831 -0.18584459 0.19157302 0.12860093 -0.16679314 0.40239215 0.022542208 -0.05578869 0.33893138 0.375808 0.2526053 -0.32810876 0.34640205 0.18149588 0.32183048 -0.2852409 0.019005893 -0.16178218 0.7870639 -0.10403996 0.21864685 -0.04665558 0.0672013 -0.010181416 -0.08304514 0.18347414 0.21270913 0.1242056 0.31948155 0.18756375 -0.0342072 -0.049664717 0.33962855 0.3241528 0.22486857 0.21753958 -0.008748599 -0.06091655 0.035668023 0.41130555 0.2192642 -0.11008602 0.07335144 0.021830915 0.19103214 0.24975267 0.5820232 0.31329224 -0.048013788 0.083733924 -0.18848075 0.29769868 0.21363038 0.1916304 0.25055388 0.27860934 -0.0141802365 0.13514309 0.4098158 0.070586085 -0.053162653 0.021363437 0.0192102 0.35155225 -0.11472312 -7.992486E-4 0.14484419 0.2441272 -0.11558099 0.051790606 -0.17164248 0.008245451 0.5491532 0.19204597 -0.11697439 0.032872267 -0.029396445 0.54307353 0.21859203 0.003765632 0.20577227 0.20364398 -0.2562258 0.13939725 0.1335125 -0.21111113 -0.04979288 -0.10734714 0.017845463 -0.17800047 -0.052004017 0.058292355 0.14190325 -0.03658754 0.27867407 0.07504112 0.17163609