0.0280774 0.13949595 0.023426045 0.07163647 0.22659677 0.1377863 0.04665623 -0.028154263 0.083258875 0.025576157 0.3744754 0.068294235 0.22115853 0.24402928 0.0075966306 0.3145468 0.1742487 -0.0353223 0.10139633 -0.0068514734 0.067222625 0.19058159 0.06691899 0.1691 0.0059023686 0.1772884 0.16052808 0.02469649 -0.02095146 0.08529915 0.31406015 0.03145757 0.0038612925 -0.021395475 0.20820299 0.19166362 -7.7990146E-4 0.10616536 0.030158874 0.20574154 -0.04392742 0.029406963 0.13166317 0.18600689 0.06838793 -0.019508433 0.07341389 0.12172703 0.16527288 0.087095216 0.10327999 0.25866243 -0.17114174 -0.046784274 0.066576384 0.08326237 0.0760564 -0.030400142 0.02918651 0.10624836 0.038470175 -0.032151677 0.05070033 0.065948695 0.2387254 0.12473749 0.24078366 0.25341356 0.19529574 0.31196597 -0.021365035 0.045768186 0.1781077 0.025063239 0.036662657 0.07977512 0.11649544 0.002338112 -0.04073049 -0.0499679 0.11283227 0.020468501 -0.019741772 0.004190452 0.06665147 0.08523287 0.1749062 -0.06431676 0.16100419 -0.036079887 0.28321543 0.0058368323 0.20820825 0.08091303 0.025301706 -0.035571028 0.18072842 -0.019865178 0.090322234 3.0372935E-4